digraph Tree {
node [shape=box, style="filled, rounded", color="black", fontname="helvetica"] ;
edge [fontname="helvetica"] ;
0 [label="N <= 79.5\nentropy = 0.316\nsamples = 1768\nvalue = [1, 1, 1, 81, 1, 1680, 1, 1, 1]\nclass = maize", fillcolor="#436ce6"] ;
1 [label="N <= 50.276\nentropy = 0.065\nsamples = 1263\nvalue = [1, 1, 1, 0, 1, 1256, 1, 1, 1]\nclass = maize", fillcolor="#3a65e5"] ;
0 -> 1 [labeldistance=2.5, labelangle=45, headlabel="True"] ;
2 [label="entropy = 0.0\nsamples = 1040\nvalue = [0, 0, 0, 0, 0, 1040, 0, 0, 0]\nclass = maize", fillcolor="#3964e5"] ;
1 -> 2 ;
3 [label="N <= 50.776\nentropy = 0.289\nsamples = 223\nvalue = [1, 1, 1, 0, 1, 216, 1, 1, 1]\nclass = maize", fillcolor="#3f69e6"] ;
1 -> 3 ;
4 [label="entropy = 2.807\nsamples = 7\nvalue = [1, 1, 1, 0, 1, 0, 1, 1, 1]\nclass = avocado", fillcolor="#ffffff"] ;
3 -> 4 ;
5 [label="entropy = 0.0\nsamples = 216\nvalue = [0, 0, 0, 0, 0, 216, 0, 0, 0]\nclass = maize", fillcolor="#3964e5"] ;
3 -> 5 ;
6 [label="humidity <= 70.521\nentropy = 0.635\nsamples = 505\nvalue = [0, 0, 0, 81, 0, 424, 0, 0, 0]\nclass = maize", fillcolor="#5f82ea"] ;
0 -> 6 [labeldistance=2.5, labelangle=-45, headlabel="False"] ;
7 [label="rainfall <= 111.238\nentropy = 0.701\nsamples = 100\nvalue = [0, 0, 0, 81, 0, 19, 0, 0, 0]\nclass = coffee", fillcolor="#67eb9f"] ;
6 -> 7 ;
8 [label="entropy = 0.0\nsamples = 19\nvalue = [0, 0, 0, 0, 0, 19, 0, 0, 0]\nclass = maize", fillcolor="#3964e5"] ;
7 -> 8 ;
9 [label="entropy = 0.0\nsamples = 81\nvalue = [0, 0, 0, 81, 0, 0, 0, 0, 0]\nclass = coffee", fillcolor="#39e581"] ;
7 -> 9 ;
10 [label="entropy = 0.0\nsamples = 405\nvalue = [0, 0, 0, 0, 0, 405, 0, 0, 0]\nclass = maize", fillcolor="#3964e5"] ;
6 -> 10 ;
}